Language model created by QuickLM on Fri Mar 28 18:39:55 EDT 2014
Copyright (c) 1996-2010 Carnegie Mellon University and Alexander I. Rudnicky

The model is in standard ARPA format, designed by Doug Paul while he was at MITRE.

The code that was used to produce this language model is available in Open Source.
Please visit http://www.speech.cs.cmu.edu/tools/ for more information

The (fixed) discount mass is 0.5. The backoffs are computed using the ratio method.
This model based on a corpus of 35 sentences and 33 words

\data\
ngram 1=33
ngram 2=66
ngram 3=48

\1-grams:
-0.8288 </s> -0.3010
-0.8288 <s> -0.2114
-2.3729 ANGULAR -0.2313
-2.0719 BACK -0.2313
-1.8958 BACKWARD -0.2313
-2.3729 EIGHT -0.2313
-2.3729 FIVE -0.2313
-1.8958 FORWARD -0.2313
-2.3729 FOUR -0.2313
-2.3729 FULL -0.2973
-2.0719 GO -0.2898
-2.3729 GOTO -0.2313
-2.3729 HALF -0.2973
-2.3729 HALT -0.2313
-1.8958 LEFT -0.2313
-2.3729 LINEAR -0.2313
-1.6739 MOVE -0.2745
-2.3729 NINE -0.2313
-2.3729 ONE -0.2313
-1.8958 RIGHT -0.2313
-2.0719 ROTATE -0.2898
-2.3729 SEVEN -0.2313
-2.3729 SIX -0.2313
-2.0719 SPEED -0.2313
-2.3729 STOP -0.2313
-2.3729 THREE -0.2313
-2.3729 TURTLEBOT -0.2313
-2.0719 TWIST -0.2973
-2.3729 TWO -0.2313
-2.3729 X -0.2313
-2.3729 Y -0.2313
-2.3729 Z -0.2313
-2.3729 ZERO -0.2313

\2-grams:
-1.8451 <s> BACK 0.0000
-1.8451 <s> BACKWARD 0.0000
-1.8451 <s> EIGHT 0.0000
-1.8451 <s> FIVE 0.0000
-1.8451 <s> FORWARD 0.0000
-1.8451 <s> FOUR 0.0000
-1.8451 <s> FULL 0.0000
-1.5441 <s> GO 0.0000
-1.8451 <s> GOTO 0.0000
-1.8451 <s> HALF 0.0000
-1.8451 <s> HALT 0.0000
-1.8451 <s> LEFT 0.0000
-1.1461 <s> MOVE 0.0000
-1.8451 <s> NINE 0.0000
-1.8451 <s> ONE 0.0000
-1.8451 <s> RIGHT 0.0000
-1.5441 <s> ROTATE 0.0000
-1.8451 <s> SEVEN 0.0000
-1.8451 <s> SIX 0.0000
-1.8451 <s> STOP 0.0000
-1.8451 <s> THREE 0.0000
-1.8451 <s> TURTLEBOT 0.0000
-1.5441 <s> TWIST 0.0000
-1.8451 <s> TWO 0.0000
-1.8451 <s> X 0.0000
-1.8451 <s> Y 0.0000
-1.8451 <s> Z 0.0000
-1.8451 <s> ZERO 0.0000
-0.3010 ANGULAR </s> -0.3010
-0.3010 BACK </s> -0.3010
-0.3010 BACKWARD </s> -0.3010
-0.3010 EIGHT </s> -0.3010
-0.3010 FIVE </s> -0.3010
-0.3010 FORWARD </s> -0.3010
-0.3010 FOUR </s> -0.3010
-0.3010 FULL SPEED 0.0000
-0.6021 GO BACKWARD 0.0000
-0.6021 GO FORWARD 0.0000
-0.3010 GOTO </s> -0.3010
-0.3010 HALF SPEED 0.0000
-0.3010 HALT </s> -0.3010
-0.3010 LEFT </s> -0.3010
-0.3010 LINEAR </s> -0.3010
-1.0000 MOVE BACK 0.0000
-1.0000 MOVE BACKWARD 0.0000
-1.0000 MOVE FORWARD 0.0000
-1.0000 MOVE LEFT 0.0000
-1.0000 MOVE RIGHT 0.0000
-0.3010 NINE </s> -0.3010
-0.3010 ONE </s> -0.3010
-0.3010 RIGHT </s> -0.3010
-0.6021 ROTATE LEFT 0.0000
-0.6021 ROTATE RIGHT 0.0000
-0.3010 SEVEN </s> -0.3010
-0.3010 SIX </s> -0.3010
-0.3010 SPEED </s> -0.3010
-0.3010 STOP </s> -0.3010
-0.3010 THREE </s> -0.3010
-0.3010 TURTLEBOT </s> -0.3010
-0.6021 TWIST ANGULAR 0.0000
-0.6021 TWIST LINEAR 0.0000
-0.3010 TWO </s> -0.3010
-0.3010 X </s> -0.3010
-0.3010 Y </s> -0.3010
-0.3010 Z </s> -0.3010
-0.3010 ZERO </s> -0.3010

\3-grams:
-0.3010 <s> BACK </s>
-0.3010 <s> BACKWARD </s>
-0.3010 <s> EIGHT </s>
-0.3010 <s> FIVE </s>
-0.3010 <s> FORWARD </s>
-0.3010 <s> FOUR </s>
-0.3010 <s> FULL SPEED
-0.6021 <s> GO BACKWARD
-0.6021 <s> GO FORWARD
-0.3010 <s> GOTO </s>
-0.3010 <s> HALF SPEED
-0.3010 <s> HALT </s>
-0.3010 <s> LEFT </s>
-1.0000 <s> MOVE BACK
-1.0000 <s> MOVE BACKWARD
-1.0000 <s> MOVE FORWARD
-1.0000 <s> MOVE LEFT
-1.0000 <s> MOVE RIGHT
-0.3010 <s> NINE </s>
-0.3010 <s> ONE </s>
-0.3010 <s> RIGHT </s>
-0.6021 <s> ROTATE LEFT
-0.6021 <s> ROTATE RIGHT
-0.3010 <s> SEVEN </s>
-0.3010 <s> SIX </s>
-0.3010 <s> STOP </s>
-0.3010 <s> THREE </s>
-0.3010 <s> TURTLEBOT </s>
-0.6021 <s> TWIST ANGULAR
-0.6021 <s> TWIST LINEAR
-0.3010 <s> TWO </s>
-0.3010 <s> X </s>
-0.3010 <s> Y </s>
-0.3010 <s> Z </s>
-0.3010 <s> ZERO </s>
-0.3010 FULL SPEED </s>
-0.3010 GO BACKWARD </s>
-0.3010 GO FORWARD </s>
-0.3010 HALF SPEED </s>
-0.3010 MOVE BACK </s>
-0.3010 MOVE BACKWARD </s>
-0.3010 MOVE FORWARD </s>
-0.3010 MOVE LEFT </s>
-0.3010 MOVE RIGHT </s>
-0.3010 ROTATE LEFT </s>
-0.3010 ROTATE RIGHT </s>
-0.3010 TWIST ANGULAR </s>
-0.3010 TWIST LINEAR </s>

\end\
